gru_4/gru_cell_4/kernel:0
(1, 240)
[[ 0.1485454  -0.47139007 -0.36648256 -0.23702732 -0.33890277 -0.22836092
  -0.23857206 -0.20234047 -0.3228102  -0.357902   -0.40243787 -0.05810764
  -0.47255287 -0.5513268  -0.19249496 -0.27920848 -0.45988515 -0.35863477
  -0.3215312  -0.44166142 -0.22967285 -0.2833837  -0.2633723  -0.41949448
  -0.26185778 -0.5522086  -0.2226879  -0.09293261 -0.45334795 -0.31912842
  -0.2298539  -0.39654014 -0.4710527  -0.38120174 -0.4526747  -0.4124123
  -0.37066564 -0.30725214 -0.32279584 -0.4041523   0.11767015 -0.47526637
  -0.5571079  -0.03796773 -0.4065798  -0.39460894 -0.41373894 -0.23791698
  -0.2907802  -0.3910439  -0.4454418  -0.13330892 -0.45841658 -0.38525957
  -0.21553338 -0.17642249 -0.38401487 -0.15127626 -0.30899125 -0.35995287
  -0.42466384 -0.33451152 -0.13761172 -0.25808972 -0.33624002 -0.15244159
  -0.37444663 -0.30421272 -0.35282516 -0.4112549  -0.31375352 -0.04237861
  -0.3185211  -0.422448   -0.19024841 -0.35464877 -0.48761386 -0.46822718
  -0.5093764  -0.23855898  0.00693998  0.00538908  0.08977698 -0.02920943
  -0.04458566 -0.03947046  0.0855915   0.02887283  0.0783882   0.15279515
  -0.03557881  0.14033602  0.015054    0.03908573  0.04424788  0.14888588
  -0.17508112  0.10735241 -0.10444307 -0.10047096 -0.06932925  0.02952141
   0.03141819  0.1529583  -0.02071745 -0.04679089 -0.15607128 -0.03422455
  -0.02684708 -0.01481946  0.07429974  0.00733423  0.11215451 -0.11461698
  -0.03703614  0.07257295  0.15507792 -0.04372232  0.0515433  -0.05752155
   0.00973698  0.00079012  0.02285106 -0.13286883 -0.03251921  0.00267083
   0.09646957  0.10761662 -0.12497663  0.01738597  0.00574695  0.12273812
  -0.11839545 -0.14209153  0.01089626  0.13566402  0.02726166 -0.08600719
   0.05891842  0.09249803 -0.14778693 -0.14584991  0.02336878 -0.03113966
  -0.08659242 -0.00477435  0.1132653  -0.10715111 -0.02219432 -0.10552962
   0.06229142  0.09070653 -0.01879879  0.08580153 -0.10580245 -0.00695111
  -0.03113172  0.05409291 -0.01656412 -0.15545581 -0.11341526 -0.07782763
   0.10234606 -0.02698929 -0.14066353  0.12754577  0.0231646  -0.06107988
   0.05521397  0.13394776 -0.0822859  -0.05464309 -0.02552401  0.07699531
   0.07360759  0.0908922   0.14083508 -0.04410933  0.09919078  0.155722
   0.08088776  0.06295294  0.13978837 -0.13979942  0.13182773 -0.0926771
  -0.11856873 -0.05187016  0.14388262 -0.10226777 -0.07000522 -0.04027474
   0.06062822 -0.02136071  0.14541136 -0.04730008 -0.07829764  0.09909034
   0.06968351  0.07334239 -0.00172572  0.0939198   0.09203506  0.12549724
  -0.09626692  0.01511821  0.07483706  0.14200574 -0.02969105  0.08419883
  -0.09778295 -0.02489265 -0.06842898  0.11277507 -0.09072124 -0.01403668
   0.00984492 -0.09938015 -0.10973829  0.10929564  0.14047706 -0.13428502
  -0.13730009  0.02859376  0.06684016 -0.127983    0.05751481  0.13862318
  -0.1467446  -0.05052178 -0.03815814 -0.05350703  0.06094414 -0.14969678
  -0.11416744 -0.02657478 -0.07811577  0.09638067 -0.1270255   0.01804063]]
gru_4/gru_cell_4/recurrent_kernel:0
(80, 240)
[[-0.17116529  0.09602283  0.12191895 ...  0.04009867 -0.14313433
  -0.10053089]
 [-0.10136766  0.09158362  0.15749271 ...  0.03551114  0.05648423
  -0.03200996]
 [ 0.00578081 -0.13888708 -0.18500872 ... -0.03834759 -0.09063627
  -0.05197242]
 ...
 [ 0.06081214 -0.11286919 -0.03647972 ...  0.01050856 -0.01981847
  -0.10123258]
 [-0.04422811  0.03211816  0.08608223 ...  0.04023548 -0.05351299
   0.00707801]
 [ 0.02497522  0.12249466  0.08445274 ... -0.07867109  0.09202483
  -0.04337306]]
gru_4/gru_cell_4/bias:0
(2, 240)
[[ 5.26342951e-02 -4.86562073e-01 -6.02212131e-01 -1.19736671e-01
  -5.43436646e-01 -4.35595512e-01 -2.96132088e-01 -4.19805825e-01
  -4.58888441e-01 -2.88074821e-01 -4.48285103e-01 -1.14342950e-01
  -4.28112566e-01 -5.50684810e-01 -3.68046463e-01 -5.46573997e-01
  -4.43906307e-01 -4.23810810e-01 -5.03387094e-01 -6.64207458e-01
  -4.12036121e-01 -3.08800817e-01 -4.40574378e-01 -5.11437833e-01
  -3.57252479e-01 -6.05474114e-01 -4.34576869e-01 -1.29411384e-01
  -4.30274129e-01 -4.05835003e-01 -4.15554255e-01 -5.37875593e-01
  -4.94477212e-01 -3.10029954e-01 -4.34233814e-01 -4.30655777e-01
  -4.54297811e-01 -4.23194885e-01 -3.74230266e-01 -5.13213515e-01
  -6.98176492e-03 -5.15248775e-01 -5.18134058e-01 -1.56734630e-01
  -5.28694808e-01 -3.54674190e-01 -4.34369743e-01 -3.75909299e-01
  -3.52850258e-01 -4.78700697e-01 -4.19838816e-01 -2.41292119e-01
  -4.35711771e-01 -3.94815207e-01 -4.39631104e-01 -6.28275797e-02
  -2.72925168e-01 -3.39774400e-01 -3.97482336e-01 -4.15334046e-01
  -3.81936282e-01 -4.99155849e-01 -2.92247534e-01 -2.56473452e-01
  -5.57638168e-01 -3.42886239e-01 -5.08238912e-01 -4.23712343e-01
  -3.68056446e-01 -4.06499207e-01 -4.72955823e-01 -2.13582948e-01
  -5.36080420e-01 -4.82789755e-01 -3.29338402e-01 -3.44987512e-01
  -4.37469721e-01 -4.91282851e-01 -4.74467814e-01 -1.58904329e-01
  -7.24945508e-04 -2.89368145e-02 -3.00629642e-02 -2.10239943e-02
  -7.90725369e-03 -3.22471838e-04 -1.42181423e-02 -1.00380853e-02
  -1.20648332e-02  1.98106165e-03 -7.24441651e-03  5.86694200e-03
   8.20334186e-04 -1.11342426e-02 -1.08229136e-02 -5.50621143e-03
  -1.21320644e-02 -1.12641519e-02  8.17314442e-03  1.41051114e-02
  -5.80110541e-03 -2.31891163e-02 -1.25952112e-02  6.74650026e-03
   1.37485797e-03 -2.78402143e-03 -4.43092268e-03  9.93445236e-03
  -5.84422750e-03  1.78986858e-03 -4.46745288e-03 -1.38290944e-02
  -1.24831498e-02 -9.57783405e-03  4.44647949e-03 -6.73473626e-03
   3.66397621e-03 -5.12693683e-03 -5.67985931e-03 -2.54119281e-02
  -9.24305059e-03 -9.32785124e-03 -1.89598259e-02 -1.53748887e-02
  -7.87101500e-03  2.87878327e-03 -2.87223747e-03 -6.59587700e-03
  -3.43547296e-03 -8.64049513e-03  2.56199692e-03 -1.87733900e-02
  -5.41645987e-03 -7.12872657e-04 -2.27212794e-02 -1.07604144e-02
  -4.40075342e-03 -6.81804726e-03 -1.18980827e-02  6.83258334e-03
   2.47216842e-04 -8.16948450e-05 -2.62293546e-03 -3.17923315e-02
  -5.01448773e-02 -1.03535587e-02 -2.26737298e-02 -1.90902539e-02
   3.57578229e-03 -1.33552449e-02 -5.70821315e-02 -1.53618713e-03
  -1.82174277e-02  1.04020089e-02  1.09170834e-02 -2.35959664e-02
  -3.91013920e-02 -1.03581743e-02 -1.17737465e-02 -2.58348603e-02
   9.90999583e-03  1.40268253e-02 -1.60585660e-02  8.45751259e-03
   2.00224370e-02 -1.61472335e-02 -5.15167229e-03  1.16655892e-02
  -1.08655486e-02 -1.68549083e-02  1.20344860e-02  6.71815826e-03
   3.68574308e-03 -1.07599488e-02 -6.37242664e-03 -1.29179526e-02
  -1.95767172e-02  6.16155285e-03 -1.48649346e-02 -2.34996639e-02
  -8.65626894e-03 -7.38419779e-03 -1.70369521e-02  1.84706561e-02
  -1.44060766e-02  1.57562550e-02  1.37177091e-02  1.00016929e-02
  -1.54570723e-02  1.26090227e-02  9.62070096e-03  6.34138519e-03
  -8.24400410e-03  6.79528853e-03 -1.65486969e-02  7.74616422e-03
   9.88803245e-03 -1.41076734e-02 -1.03895245e-02 -9.17807221e-03
  -4.60330833e-04 -1.25114275e-02 -1.36428131e-02 -1.21202655e-02
   1.19088516e-02 -3.96840507e-03 -1.13449302e-02 -1.57984830e-02
   6.10115146e-03 -1.12112863e-02  1.67228207e-02  6.70212321e-03
   7.90262129e-03 -1.41456649e-02  1.07490653e-02 -7.04898790e-04
  -4.11572121e-03  1.11560980e-02  1.31606255e-02 -1.57838240e-02
  -1.81876421e-02  1.54652921e-02  1.85952149e-02 -8.50562192e-03
  -8.74204189e-03  1.81685723e-02 -1.07700173e-02 -1.98466629e-02
   1.58289950e-02  8.34382046e-03  6.80300966e-03  1.08714243e-02
  -9.33534466e-03  1.84301473e-02  1.44385528e-02  5.96413203e-03
   1.59734692e-02 -1.45283053e-02  1.55121274e-02 -3.54181440e-03]
 [ 5.26342951e-02 -4.86562073e-01 -6.02212131e-01 -1.19736671e-01
  -5.43436646e-01 -4.35595512e-01 -2.96132088e-01 -4.19805825e-01
  -4.58888441e-01 -2.88074821e-01 -4.48285103e-01 -1.14342950e-01
  -4.28112566e-01 -5.50684810e-01 -3.68046463e-01 -5.46573997e-01
  -4.43906307e-01 -4.23810810e-01 -5.03387094e-01 -6.64207458e-01
  -4.12036121e-01 -3.08800817e-01 -4.40574378e-01 -5.11437833e-01
  -3.57252479e-01 -6.05474114e-01 -4.34576869e-01 -1.29411384e-01
  -4.30274129e-01 -4.05835003e-01 -4.15554255e-01 -5.37875593e-01
  -4.94477212e-01 -3.10029954e-01 -4.34233814e-01 -4.30655777e-01
  -4.54297811e-01 -4.23194885e-01 -3.74230266e-01 -5.13213515e-01
  -6.98176492e-03 -5.15248775e-01 -5.18134058e-01 -1.56734630e-01
  -5.28694808e-01 -3.54674190e-01 -4.34369743e-01 -3.75909299e-01
  -3.52850258e-01 -4.78700697e-01 -4.19838816e-01 -2.41292119e-01
  -4.35711771e-01 -3.94815207e-01 -4.39631104e-01 -6.28275797e-02
  -2.72925168e-01 -3.39774400e-01 -3.97482336e-01 -4.15334046e-01
  -3.81936282e-01 -4.99155849e-01 -2.92247534e-01 -2.56473452e-01
  -5.57638168e-01 -3.42886239e-01 -5.08238912e-01 -4.23712343e-01
  -3.68056446e-01 -4.06499207e-01 -4.72955823e-01 -2.13582948e-01
  -5.36080420e-01 -4.82789755e-01 -3.29338402e-01 -3.44987512e-01
  -4.37469721e-01 -4.91282851e-01 -4.74467814e-01 -1.58904329e-01
  -7.24945508e-04 -2.89368145e-02 -3.00629642e-02 -2.10239943e-02
  -7.90725369e-03 -3.22471838e-04 -1.42181423e-02 -1.00380853e-02
  -1.20648332e-02  1.98106165e-03 -7.24441651e-03  5.86694200e-03
   8.20334186e-04 -1.11342426e-02 -1.08229136e-02 -5.50621143e-03
  -1.21320644e-02 -1.12641519e-02  8.17314442e-03  1.41051114e-02
  -5.80110541e-03 -2.31891163e-02 -1.25952112e-02  6.74650026e-03
   1.37485797e-03 -2.78402143e-03 -4.43092268e-03  9.93445236e-03
  -5.84422750e-03  1.78986858e-03 -4.46745288e-03 -1.38290944e-02
  -1.24831498e-02 -9.57783405e-03  4.44647949e-03 -6.73473626e-03
   3.66397621e-03 -5.12693683e-03 -5.67985931e-03 -2.54119281e-02
  -9.24305059e-03 -9.32785124e-03 -1.89598259e-02 -1.53748887e-02
  -7.87101500e-03  2.87878327e-03 -2.87223747e-03 -6.59587700e-03
  -3.43547296e-03 -8.64049513e-03  2.56199692e-03 -1.87733900e-02
  -5.41645987e-03 -7.12872657e-04 -2.27212794e-02 -1.07604144e-02
  -4.40075342e-03 -6.81804726e-03 -1.18980827e-02  6.83258334e-03
   2.47216842e-04 -8.16948450e-05 -2.62293546e-03 -3.17923315e-02
  -5.01448773e-02 -1.03535587e-02 -2.26737298e-02 -1.90902539e-02
   3.57578229e-03 -1.33552449e-02 -5.70821315e-02 -1.53618713e-03
  -1.82174277e-02  1.04020089e-02  1.09170834e-02 -2.35959664e-02
  -3.91013920e-02 -1.03581743e-02 -1.17737465e-02 -2.58348603e-02
   9.76829790e-03  1.34196822e-02 -1.49803832e-02  8.19834229e-03
   1.94663443e-02 -1.59192737e-02 -5.04271640e-03  1.13325724e-02
  -1.05242273e-02 -1.65583473e-02  1.19104162e-02  6.58272719e-03
   3.58355022e-03 -1.00491764e-02 -6.08041137e-03 -1.21940644e-02
  -1.94267724e-02  5.72629040e-03 -1.48081528e-02 -2.35883649e-02
  -8.80081858e-03 -6.81848498e-03 -1.66952163e-02  1.82198137e-02
  -1.43567864e-02  1.55915599e-02  1.41356885e-02  9.81778093e-03
  -1.53224468e-02  1.24738384e-02  9.29500069e-03  6.51024794e-03
  -7.65045360e-03  7.08441483e-03 -1.64559111e-02  7.43079558e-03
   9.69242491e-03 -1.39237912e-02 -1.01184929e-02 -9.14456416e-03
  -5.89483185e-04 -1.20944800e-02 -1.32259689e-02 -1.14800539e-02
   1.17192147e-02 -4.00117878e-03 -1.06385667e-02 -1.53727019e-02
   6.53092703e-03 -1.09258033e-02  1.63383484e-02  6.63915044e-03
   7.99165294e-03 -1.40560735e-02  1.03440993e-02 -7.73153559e-04
  -4.19798633e-03  1.12730386e-02  1.28454734e-02 -1.52537832e-02
  -1.80261172e-02  1.55380443e-02  1.81416050e-02 -7.90936686e-03
  -8.72845668e-03  1.80639625e-02 -1.01860883e-02 -1.95031818e-02
   1.57063808e-02  8.42391979e-03  6.55568857e-03  1.03979660e-02
  -8.95373989e-03  1.81927681e-02  1.44135272e-02  6.53655035e-03
   1.52332289e-02 -1.39938565e-02  1.50262741e-02 -3.60588008e-03]]
gru_5/gru_cell_5/kernel:0
(80, 300)
[[-0.11263272 -0.07712676 -0.02969    ...  0.12884685 -0.02355167
   0.04978883]
 [ 0.08086611 -0.04259535  0.048875   ... -0.02796799  0.0115237
  -0.12020386]
 [ 0.02112508  0.17161739  0.07170953 ... -0.05092927  0.03817342
  -0.03908328]
 ...
 [ 0.14555304 -0.01784455 -0.07779683 ... -0.08927683  0.09308774
   0.0778129 ]
 [-0.03462829 -0.01848744 -0.04537707 ...  0.03022168  0.08190921
   0.00593347]
 [ 0.04059915 -0.1425055  -0.10033491 ...  0.05796157  0.10494883
   0.1047985 ]]
gru_5/gru_cell_5/recurrent_kernel:0
(100, 300)
[[-0.1407965  -0.06140927  0.02526351 ... -0.0689825  -0.06952373
   0.02324139]
 [ 0.01537518  0.04868649  0.07534263 ... -0.00981999  0.00505289
   0.01817418]
 [ 0.00575389 -0.08560526 -0.08737865 ... -0.00916191 -0.0609885
  -0.01316821]
 ...
 [-0.17607728  0.05650104 -0.11990043 ...  0.01276992 -0.01864937
   0.01647791]
 [-0.00188078 -0.01447986 -0.0773994  ... -0.0566289  -0.01452377
   0.05227964]
 [ 0.12132117  0.07263495  0.1016848  ... -0.00106188 -0.02511816
   0.07075507]]
gru_5/gru_cell_5/bias:0
(2, 300)
[[ 0.09193867  0.07711151  0.06466398  0.00658643 -0.01492787  0.02100692
   0.04521495  0.07047515  0.12232972 -0.03336926  0.06633439  0.1515262
   0.01865391  0.05285636  0.10274773  0.12538771  0.08920708 -0.01708039
   0.08310751  0.08479196  0.02627848  0.01479469  0.1072406  -0.01958248
   0.09931291  0.02838053 -0.01235155  0.05674908  0.1279689   0.07962567
   0.03721886 -0.01099111  0.00173738  0.09415214 -0.00550802  0.06253307
   0.03617444  0.00440989  0.04414708  0.12415989  0.0280943   0.06849997
   0.07421255  0.0637702   0.05603172  0.09890054  0.07798684  0.01921662
   0.08978841  0.01078412  0.03166763  0.01132223  0.06461246  0.04046805
   0.08775764  0.04124354  0.01697025  0.09248057  0.05350057  0.05407527
   0.03764961  0.05773588  0.05123609  0.03282479  0.0038385   0.00852955
   0.13784584  0.07414179  0.04063042 -0.03030495  0.07955179  0.06552121
   0.04242954  0.08988281 -0.00506574  0.07258837  0.17028491  0.09353141
   0.04526206  0.10296178  0.05919429  0.11848295  0.00518282  0.00018931
   0.06535197 -0.01925748  0.03044835  0.01629985  0.07337573  0.08846553
   0.00068503  0.12076245  0.08867772  0.01760164  0.06304003  0.08603421
   0.03253739  0.12770489  0.05478851 -0.00341863 -0.03058996  0.01276801
  -0.02863256  0.01375653 -0.01763448 -0.01216964 -0.00934201 -0.00629718
  -0.00626945 -0.03272257 -0.03135269 -0.02015309 -0.04916129 -0.01904854
  -0.01724309 -0.01440325 -0.0328978  -0.05447866 -0.02952974 -0.016074
  -0.04705376 -0.03157983 -0.00881664 -0.04580411 -0.018999   -0.04197577
  -0.02312215 -0.03905782 -0.01081478 -0.01853114 -0.01311534 -0.0123214
  -0.01524124 -0.01676452 -0.01962366 -0.0120664  -0.00763569 -0.02105842
  -0.02595248 -0.02734993 -0.03017004 -0.00056401 -0.00319507  0.01455554
  -0.02606523 -0.03793981  0.01504422 -0.0168814  -0.02074018 -0.03363499
  -0.00755977  0.0003179  -0.01566997 -0.04082856 -0.00329706 -0.0268988
  -0.03425585 -0.00815961  0.00320335 -0.00257306  0.00703192 -0.00264064
   0.02547342 -0.01693429 -0.0103719  -0.0151984  -0.03432115 -0.03107022
  -0.03428821 -0.00532646 -0.04729052 -0.00783866 -0.01125811 -0.03056342
  -0.02901775 -0.02345587 -0.00781944 -0.00593068 -0.02601144 -0.02555643
  -0.02131418 -0.00266068 -0.01373991 -0.00348363 -0.01495    -0.017174
  -0.05314231 -0.04443028 -0.01714375 -0.01911742 -0.03488632 -0.02678963
  -0.02820684 -0.00732183 -0.03514633 -0.00726089 -0.02636929 -0.01565341
   0.0025729  -0.02421281 -0.00635182  0.00070751 -0.00508238 -0.00912434
  -0.00881044  0.01483373 -0.00977506 -0.00760757 -0.01248268 -0.01173318
  -0.00790295  0.01017786  0.00908429 -0.00789444 -0.00801031 -0.00457512
   0.00857253 -0.00781812 -0.00883542 -0.00522242  0.00762241 -0.00814742
  -0.01021083  0.00619484  0.01271678  0.00990022  0.0054556  -0.00787526
   0.00782406  0.00679023 -0.00719131  0.00415156  0.00727799  0.0081932
   0.00609308  0.00945295 -0.00651012  0.01542262  0.00715552  0.00647261
   0.00842076  0.00522262 -0.00492878 -0.00773437 -0.00701425 -0.00484955
   0.00678651 -0.01312785  0.00800733 -0.00922628  0.00326228  0.00897769
  -0.00707499  0.00784646  0.00609272 -0.00686593 -0.0066124   0.01026616
   0.00332445  0.00497657  0.01538346  0.00355422 -0.00572894 -0.00720306
  -0.00780587  0.00705336 -0.01019118 -0.00817415  0.0085146  -0.00490615
   0.0113179  -0.00921021 -0.00855915  0.00920023  0.01622606  0.00563275
  -0.00536112  0.00713946 -0.01506134  0.00845555  0.00845207 -0.00919258
   0.0076359   0.00860124 -0.00970339 -0.00639469 -0.00580599 -0.01201069
  -0.00804102  0.00558123 -0.01269144  0.00711315  0.00708222 -0.00737027
  -0.00581636 -0.00613155  0.00882782 -0.01354642 -0.00433528  0.00757539]
 [ 0.09193867  0.07711151  0.06466398  0.00658643 -0.01492787  0.02100692
   0.04521495  0.07047515  0.12232972 -0.03336926  0.06633439  0.1515262
   0.01865391  0.05285636  0.10274773  0.12538771  0.08920708 -0.01708039
   0.08310751  0.08479196  0.02627848  0.01479469  0.1072406  -0.01958248
   0.09931291  0.02838053 -0.01235155  0.05674908  0.1279689   0.07962567
   0.03721886 -0.01099111  0.00173738  0.09415214 -0.00550802  0.06253307
   0.03617444  0.00440989  0.04414708  0.12415989  0.0280943   0.06849997
   0.07421255  0.0637702   0.05603172  0.09890054  0.07798684  0.01921662
   0.08978841  0.01078412  0.03166763  0.01132223  0.06461246  0.04046805
   0.08775764  0.04124354  0.01697025  0.09248057  0.05350057  0.05407527
   0.03764961  0.05773588  0.05123609  0.03282479  0.0038385   0.00852955
   0.13784584  0.07414179  0.04063042 -0.03030495  0.07955179  0.06552121
   0.04242954  0.08988281 -0.00506574  0.07258837  0.17028491  0.09353141
   0.04526206  0.10296178  0.05919429  0.11848295  0.00518282  0.00018931
   0.06535197 -0.01925748  0.03044835  0.01629985  0.07337573  0.08846553
   0.00068503  0.12076245  0.08867772  0.01760164  0.06304003  0.08603421
   0.03253739  0.12770489  0.05478851 -0.00341863 -0.03058996  0.01276801
  -0.02863256  0.01375653 -0.01763448 -0.01216964 -0.00934201 -0.00629718
  -0.00626945 -0.03272257 -0.03135269 -0.02015309 -0.04916129 -0.01904854
  -0.01724309 -0.01440325 -0.0328978  -0.05447866 -0.02952974 -0.016074
  -0.04705376 -0.03157983 -0.00881664 -0.04580411 -0.018999   -0.04197577
  -0.02312215 -0.03905782 -0.01081478 -0.01853114 -0.01311534 -0.0123214
  -0.01524124 -0.01676452 -0.01962366 -0.0120664  -0.00763569 -0.02105842
  -0.02595248 -0.02734993 -0.03017004 -0.00056401 -0.00319507  0.01455554
  -0.02606523 -0.03793981  0.01504422 -0.0168814  -0.02074018 -0.03363499
  -0.00755977  0.0003179  -0.01566997 -0.04082856 -0.00329706 -0.0268988
  -0.03425585 -0.00815961  0.00320335 -0.00257306  0.00703192 -0.00264064
   0.02547342 -0.01693429 -0.0103719  -0.0151984  -0.03432115 -0.03107022
  -0.03428821 -0.00532646 -0.04729052 -0.00783866 -0.01125811 -0.03056342
  -0.02901775 -0.02345587 -0.00781944 -0.00593068 -0.02601144 -0.02555643
  -0.02131418 -0.00266068 -0.01373991 -0.00348363 -0.01495    -0.017174
  -0.05314231 -0.04443028 -0.01714375 -0.01911742 -0.03488632 -0.02678963
  -0.02820684 -0.00732183 -0.03514633 -0.00726089 -0.02636929 -0.01565341
   0.0025729  -0.02421281 -0.00614816  0.0002651  -0.004928   -0.00885449
  -0.00775752  0.01338927 -0.0100401  -0.00781402 -0.01268831 -0.01124888
  -0.00804247  0.00972196  0.00997773 -0.00806339 -0.00711454 -0.00451092
   0.00870518 -0.00789133 -0.00688296 -0.00551974  0.00752905 -0.00793444
  -0.01055808  0.00635636  0.012367    0.01022382  0.00593246 -0.00747618
   0.00804879  0.00660368 -0.0070268   0.00318457  0.00693507  0.0081928
   0.00611241  0.00920806 -0.00625787  0.01435189  0.00667354  0.00630146
   0.00842225  0.00519088 -0.00456032 -0.00782375 -0.00592026 -0.00462424
   0.00620152 -0.01235802  0.00752894 -0.00935961  0.00300316  0.0087396
  -0.0074054   0.00771469  0.00603307 -0.00605304 -0.00610216  0.00973279
   0.00322117  0.00398899  0.01487359  0.00354793 -0.00564456 -0.00734697
  -0.00775875  0.00662155 -0.00939874 -0.0079691   0.00680555 -0.00509913
   0.01123763 -0.00956553 -0.00858226  0.00970839  0.01581486  0.00553791
  -0.00538949  0.00683254 -0.01565736  0.00862486  0.00805702 -0.00880373
   0.00733121  0.00820934 -0.00987371 -0.00651111 -0.00601382 -0.01189776
  -0.00807727  0.00544338 -0.01242567  0.00756683  0.00718152 -0.00714909
  -0.00612223 -0.00587497  0.0085601  -0.01271579 -0.00395876  0.00793109]]
dense_24/kernel:0
(100, 1)
[[-0.17960064]
 [ 0.10875243]
 [-0.15177783]
 [-0.06534239]
 [-0.10819542]
 [ 0.06988771]
 [-0.14857736]
 [-0.22783618]
 [-0.10153864]
 [-0.12110408]
 [-0.14742292]
 [ 0.0583631 ]
 [ 0.10486077]
 [-0.11024178]
 [-0.04408477]
 [-0.12222706]
 [ 0.14168455]
 [-0.21009138]
 [-0.15384728]
 [-0.21207725]
 [ 0.16242398]
 [-0.15329403]
 [-0.1620419 ]
 [ 0.18513456]
 [ 0.07833037]
 [ 0.18442586]
 [ 0.19454066]
 [-0.15381438]
 [ 0.190251  ]
 [ 0.18159308]
 [-0.19199531]
 [ 0.13604671]
 [ 0.07123342]
 [ 0.17546366]
 [ 0.20369907]
 [ 0.12559746]
 [-0.17034523]
 [ 0.0567003 ]
 [ 0.15635261]
 [ 0.22863069]
 [ 0.12138488]
 [ 0.19147709]
 [-0.177232  ]
 [-0.08303454]
 [-0.17067364]
 [-0.20716374]
 [ 0.09139003]
 [-0.073365  ]
 [ 0.10268586]
 [-0.15483822]
 [ 0.17162633]
 [ 0.09832514]
 [-0.19392516]
 [ 0.13489613]
 [ 0.17492777]
 [-0.07638768]
 [-0.1901836 ]
 [ 0.04880777]
 [ 0.02173261]
 [ 0.17780423]
 [ 0.0494521 ]
 [-0.00485362]
 [-0.06830619]
 [-0.15670598]
 [-0.15700994]
 [ 0.17230457]
 [-0.10172275]
 [-0.18324615]
 [ 0.05383175]
 [-0.15536098]
 [ 0.11659234]
 [-0.20417239]
 [-0.21737373]
 [ 0.14255273]
 [ 0.05664236]
 [ 0.20195282]
 [-0.12336164]
 [ 0.21596041]
 [-0.07425934]
 [ 0.17802489]
 [ 0.09303579]
 [-0.09277287]
 [ 0.1100602 ]
 [ 0.08103857]
 [-0.14983131]
 [-0.19942738]
 [-0.2043354 ]
 [-0.08919133]
 [-0.11863444]
 [ 0.18258673]
 [-0.05753259]
 [ 0.2197159 ]
 [ 0.19238035]
 [-0.21520641]
 [-0.22241332]
 [-0.07404277]
 [ 0.0536024 ]
 [-0.04632154]
 [-0.08449033]
 [ 0.1743953 ]]
dense_24/bias:0
(1,)
[0.06461915]
