lstm_30/lstm_cell_30/kernel:0
(1, 320)
[[ 0.07955489 -0.00736011  0.12424947 -0.14880843  0.14740638  0.14533916
   0.0270858   0.14476171  0.05826174 -0.07730754 -0.02774641  0.05187174
  -0.05185357 -0.10003749  0.14901644  0.22220333 -0.0390903   0.00864591
   0.08864584  0.17179325  0.09504691 -0.01828457  0.10235683  0.01440473
   0.06596154 -0.03227471  0.1488117   0.03209757 -0.06960925  0.05339755
   0.12724535  0.01239276 -0.06913336 -0.10933743  0.01870247 -0.04249788
   0.01042775  0.06660377  0.00316559  0.03640392  0.1533562  -0.00685262
  -0.07058598  0.09761006  0.07427053 -0.08981891 -0.07068915  0.07146984
   0.01200078  0.0522763  -0.06373433  0.07467939 -0.03123525 -0.02181914
   0.19434887 -0.0915823  -0.13044755  0.14247698  0.03730921 -0.01180248
  -0.0675918   0.1637336   0.12411151 -0.04402555  0.08774337  0.14055571
   0.00649574  0.06966251 -0.03626358 -0.06527002  0.08225735  0.10404108
   0.12430447  0.05001685  0.11527937 -0.0569106  -0.1441074   0.02504274
  -0.05699595 -0.1247701  -0.00732414  0.066566    0.12366445 -0.03202741
   0.00654056 -0.01411998  0.09919139  0.039622    0.08163572  0.1371473
  -0.03360507  0.12391379  0.03812582  0.06093656  0.0620971   0.14140597
  -0.11236197  0.10893338 -0.08755755 -0.0966683  -0.065755    0.04484635
   0.04177247  0.14049222 -0.00263269 -0.01491652 -0.11872829 -0.02582973
  -0.0053949  -0.00076125  0.07689498  0.01469511  0.09335641 -0.08968081
   0.02018071  0.05294369  0.13236462 -0.02456886  0.03425994 -0.00437649
   0.0260883   0.04324942  0.07450385 -0.10343921  0.00668781 -0.00896559
   0.08466431  0.093321   -0.1165203   0.0396635   0.03169519  0.1358221
  -0.07583636 -0.1118788   0.05931935  0.1299529   0.01861438 -0.0603381
   0.06702203  0.09236076 -0.1202595  -0.1214702   0.04388369  0.00902687
  -0.03673599  0.01846366  0.08327335 -0.04541595 -0.02521594 -0.09746577
   0.10138983  0.05668684  0.02101209  0.08755326 -0.08036652  0.01653826
   0.00164283  0.09768989  0.00735707 -0.13647656 -0.09699039 -0.08820999
   0.08930263 -0.03353411 -0.13006236  0.12077834  0.04387644 -0.06082951
   0.04849896  0.13280237 -0.05803707 -0.07202642 -0.03401909  0.03436533
   0.09449199  0.10809992  0.13323708 -0.04458072  0.0968068   0.15059213
   0.06393392  0.07420733  0.1257076  -0.13052624  0.12816015 -0.08259118
  -0.10822137 -0.06858908  0.13094328 -0.10261229 -0.0650465  -0.00318495
   0.03701177 -0.02461133  0.15850462 -0.04861611 -0.06924451  0.09605483
   0.07244251  0.06980869  0.04089683  0.08955983  0.0880336   0.11638079
  -0.09091114  0.01173219  0.06593297  0.11991308 -0.02337934  0.08588456
  -0.09322195 -0.03361727 -0.08783142  0.1094433  -0.09312955 -0.02284689
   0.00090031 -0.09195583 -0.10557237  0.1027492   0.13476914 -0.13758197
  -0.12902395 -0.01648725  0.04866269 -0.12405591  0.0202712   0.12394287
  -0.12955189 -0.03970739 -0.03875303 -0.044664    0.05570185 -0.14516132
  -0.12343917 -0.02549241 -0.05706266  0.10886731 -0.12208277  0.02371585
   0.08273306  0.01707186  0.06660915  0.0635887   0.09928452  0.11465649
   0.09002591  0.08843927  0.07329214  0.14250088  0.11654517 -0.03913986
   0.0405764   0.1070861  -0.03461777  0.07281136 -0.06265569  0.07146275
   0.15235789  0.01996337 -0.0345471  -0.0350283   0.0667096   0.08610401
   0.1200811   0.00208017  0.10295872  0.04679937 -0.0050695   0.03218674
  -0.03793174  0.021804    0.03857509  0.10108139  0.24534483  0.08670686
   0.12523836 -0.09715043  0.01220465  0.06268623  0.19268876 -0.03770048
  -0.02274659  0.14617233  0.16306697 -0.07702104 -0.01391267  0.09412405
  -0.09640978  0.05982541  0.02229445 -0.05370083  0.20599416 -0.0430418
   0.18334441  0.0446993   0.04162914 -0.09310429  0.14116274 -0.05518914
  -0.0670993   0.22845773  0.15063423  0.10584223 -0.05285661 -0.10310473
  -0.04293343 -0.09846038 -0.00646737  0.00701712 -0.01427789 -0.11837301
   0.05156795  0.03208724  0.03601515 -0.08040315 -0.08335716  0.13300978
   0.01427684 -0.04864743]]
lstm_30/lstm_cell_30/recurrent_kernel:0
(80, 320)
[[-0.1132782  -0.00785761 -0.00549355 ... -0.07895026  0.07751574
  -0.08309608]
 [-0.07387328  0.02512367  0.08971343 ... -0.02996965 -0.04706001
   0.01020995]
 [-0.03653425 -0.02142316 -0.05051129 ...  0.00467982  0.03843592
  -0.03628456]
 ...
 [ 0.01847315 -0.00530262  0.06764399 ...  0.09042983  0.0787309
   0.03154022]
 [-0.00039086 -0.07219446 -0.02707707 ... -0.03677141  0.04107425
  -0.01328126]
 [ 0.01564711  0.11772547  0.07685169 ...  0.07341939 -0.03076755
   0.05328597]]
lstm_30/lstm_cell_30/bias:0
(320,)
[-1.21443626e-02  1.40552353e-02  4.48453985e-03 -3.20657007e-02
  3.64166833e-02  5.44227334e-03 -7.29975244e-03  4.10864176e-03
 -2.83935294e-03  1.16963293e-02 -1.05734179e-02  4.97154100e-03
  2.47060638e-02  2.39526434e-03  1.18370280e-02  4.74481098e-02
  4.80911043e-03  1.69408671e-03  3.71972984e-03  6.10703453e-02
 -1.12457257e-02 -2.75884010e-03 -3.68341780e-03 -1.29704224e-03
  7.08362367e-03  3.10320943e-03  3.93095752e-03  2.82988278e-03
  8.69050971e-04  8.89722630e-03  1.20354455e-03 -6.35880092e-03
 -1.02894846e-02 -4.67766402e-03  5.69861531e-02 -7.19245407e-04
 -3.06212390e-03 -1.69730734e-03  1.76688738e-03  3.68452398e-03
  3.72991827e-03  1.30652627e-02  1.33968387e-02 -1.18151158e-02
  1.36191836e-02 -2.84866779e-03 -3.67805013e-03 -6.68981858e-03
 -1.57550108e-02  1.54368039e-02 -7.20771612e-04  3.83397983e-03
  1.42531935e-02  6.02175901e-03  2.63435431e-02 -5.74669382e-03
 -7.42445188e-03 -7.99029891e-04 -3.28165363e-03  1.60315097e-03
  1.62608940e-02  7.83575997e-02  3.31401988e-03 -1.68384369e-02
 -6.31796569e-03 -3.76315365e-05 -1.95312537e-02  1.31639279e-03
 -3.98993259e-03 -6.22645952e-03  2.21650652e-03 -1.19796842e-02
  1.90879172e-03  4.93909307e-02  7.81102991e-03  1.36683334e-03
 -1.90733112e-02  4.84755933e-02  3.35512757e-02 -1.92243382e-02
  9.88778055e-01  9.78635788e-01  9.96764421e-01  9.60458994e-01
  9.96791601e-01  9.95760322e-01  9.75628316e-01  9.93581116e-01
  9.93025243e-01  9.83487487e-01  9.88145828e-01  9.94722605e-01
  9.98819172e-01  1.00140297e+00  9.76815760e-01  9.56028283e-01
  9.91411984e-01  9.93354023e-01  9.94306266e-01  9.65365708e-01
  9.83050883e-01  9.72335339e-01  9.85763252e-01  9.90397155e-01
  9.93912756e-01  9.91753578e-01  9.92960811e-01  9.95315969e-01
  9.94241893e-01  9.91856813e-01  9.96055782e-01  9.92466569e-01
  9.88576949e-01  9.91127491e-01  9.89475548e-01  9.82767224e-01
  9.75230455e-01  9.91543829e-01  9.80856955e-01  9.96779561e-01
  9.78495657e-01  9.96053159e-01  9.87482190e-01  9.80801940e-01
  9.91029620e-01  9.91762638e-01  9.88378406e-01  9.89537776e-01
  9.77771699e-01  9.87360239e-01  9.80970025e-01  9.99232829e-01
  9.56806839e-01  9.94747221e-01  9.81102884e-01  9.85352397e-01
  9.92108345e-01  9.89838421e-01  9.86912370e-01  9.93113756e-01
  9.89191055e-01  9.66360569e-01  9.95315075e-01  9.65292752e-01
  9.92118955e-01  9.97183502e-01  9.81089532e-01  9.93968725e-01
  9.89053905e-01  9.86665785e-01  9.90200698e-01  9.86105502e-01
  9.91879940e-01  9.87290859e-01  9.91328001e-01  9.99079049e-01
  9.77484643e-01  9.89051878e-01  9.84498978e-01  9.76278663e-01
  1.42446319e-02  1.99973788e-02 -1.23086218e-02  8.35392531e-03
  1.92632060e-02 -1.45934969e-02 -1.09028555e-02  1.07939681e-02
 -9.05161258e-03 -1.90572031e-02  1.69292446e-02  9.10000689e-03
  4.17980412e-03 -4.88006929e-03 -8.98269378e-03 -1.69323776e-02
 -1.91195477e-02  1.02860332e-02 -1.41608147e-02 -2.32856330e-02
 -1.42510738e-02 -1.12097692e-02 -2.20613219e-02  2.06610635e-02
 -1.56151596e-02  1.35081895e-02  1.46926669e-02  1.18608819e-02
 -1.41885867e-02  1.80836171e-02  9.09682922e-03 -2.98377103e-03
 -9.10645910e-03  1.05913999e-02 -2.70950347e-02  1.37886647e-02
  1.07027246e-02 -1.25870463e-02 -1.62635148e-02 -9.84178018e-03
  1.28926279e-03 -1.36674810e-02 -1.76936742e-02 -2.49363352e-02
  1.52195338e-02 -8.67255870e-03 -1.30201560e-02 -2.34125946e-02
  1.37498109e-02 -1.65091399e-02  1.96130257e-02  3.58272786e-03
  9.39389039e-03 -1.81605257e-02  2.15210617e-02  3.75243207e-03
  4.09557717e-04  1.64841320e-02  1.77312959e-02 -1.77943334e-02
 -2.43381876e-02  2.54096482e-02  1.84489023e-02  4.96349018e-03
  1.92244432e-03  1.32924085e-02 -4.21596831e-03 -1.90399177e-02
  1.48636205e-02  1.84324309e-02  1.13131888e-02  1.06054526e-02
 -1.06973546e-02  2.57481858e-02  1.65486783e-02  4.70507657e-03
  1.37357675e-02 -1.62257794e-02  2.01560147e-02 -8.60686973e-03
 -1.19863600e-02  1.36806844e-02  4.43989225e-03 -3.28693949e-02
  3.60599831e-02  5.36868209e-03 -9.29860212e-03  4.03622538e-03
 -2.91910581e-03  9.11353901e-03 -1.06982365e-02  5.76768210e-03
  2.29070578e-02  1.53446128e-03  1.53564680e-02  4.88255285e-02
  5.26697654e-03  1.01265858e-03  2.64486810e-03  6.22581169e-02
 -1.07881492e-02 -2.06351653e-03 -3.51096201e-03 -2.21270090e-03
  6.05403353e-03  2.94368551e-03  4.28996282e-03  2.72010546e-03
  7.06236577e-04  8.88837408e-03  2.05497188e-03 -6.27531670e-03
 -1.01728057e-02 -5.60389739e-03  4.74192910e-02 -7.30734668e-04
 -5.21669677e-03 -5.73708327e-04  1.81824260e-03  3.44122248e-03
  1.63487426e-03  1.36468699e-02  1.30550005e-02 -1.24474484e-02
  1.18956082e-02 -2.64137704e-03 -3.76305007e-03 -6.91639259e-03
 -1.47020044e-02  1.47975925e-02 -8.23058304e-04  4.57505416e-03
  6.89121615e-03  6.30796794e-03  2.42282823e-02 -6.32985961e-03
 -7.78980972e-03  1.31408172e-03 -4.61169472e-03  2.20887386e-03
  1.59502588e-02  7.58254081e-02  2.62489868e-03 -1.86917912e-02
 -6.17393246e-03  1.51342992e-03 -1.94812641e-02  2.94395327e-03
 -4.08567768e-03 -6.15671650e-03  3.16676823e-03 -1.26766833e-02
  2.39430694e-03  4.92739044e-02  8.40580929e-03  1.37465564e-03
 -1.90165229e-02  4.43957634e-02  3.30200344e-02 -1.92016177e-02]
lstm_31/lstm_cell_31/kernel:0
(80, 400)
[[-0.08023723 -0.07139658 -0.00365738 ... -0.08171993 -0.0623935
   0.02360363]
 [-0.10604409  0.05574415 -0.07467767 ... -0.0483276  -0.01228016
   0.09719721]
 [-0.08021045 -0.07639927  0.0054212  ... -0.00188705  0.05014781
   0.01967491]
 ...
 [-0.0927106  -0.07560026 -0.06127882 ...  0.0195337   0.0801876
   0.12501834]
 [-0.11632824 -0.1380994  -0.04314594 ... -0.03695234  0.012924
  -0.01747504]
 [-0.00056351 -0.0282653   0.06337368 ... -0.04447638  0.06392477
  -0.07253034]]
lstm_31/lstm_cell_31/recurrent_kernel:0
(100, 400)
[[-0.0486283  -0.00175958  0.05794333 ... -0.06810763  0.0118985
  -0.02584472]
 [-0.06186402 -0.01772408  0.01206351 ...  0.04850833 -0.03549638
  -0.03756952]
 [ 0.05126467 -0.01058915  0.03131673 ... -0.12864439  0.01327006
   0.0779879 ]
 ...
 [-0.08521814  0.1418253  -0.01563121 ... -0.00688075 -0.06603031
   0.04511237]
 [ 0.02668139  0.10086852  0.03210633 ... -0.02086318  0.07466923
   0.02353846]
 [ 0.06463555 -0.01401857  0.02536307 ... -0.03558721 -0.02084051
   0.01046732]]
lstm_31/lstm_cell_31/bias:0
(400,)
[ 2.16958276e-03 -2.79938127e-03 -2.24927347e-02  2.74618971e-03
  1.03613976e-02  6.02047564e-03 -1.35379350e-02  2.48169079e-02
 -2.06312491e-03 -3.68419103e-04 -2.13237153e-03 -7.61455973e-04
 -3.14143370e-03 -3.62884765e-03 -1.84677541e-02 -1.05712451e-02
 -5.95159642e-03 -3.70216705e-02 -2.58001313e-02 -6.81338646e-03
 -9.49776731e-03 -1.82155650e-02  1.62635243e-03 -1.21052936e-02
 -4.23917212e-02 -6.61814539e-03 -1.56450551e-02 -2.26070290e-03
 -1.70620647e-03 -1.57570615e-02  8.99197912e-05 -1.08282669e-02
 -3.06174322e-03  1.88480655e-03 -5.14117256e-03 -1.02667892e-02
 -1.05420714e-02 -8.36485252e-03 -2.29033921e-02 -1.65172741e-02
 -8.84157885e-03 -5.15025342e-03  8.91804812e-04 -2.34746560e-02
 -2.72566546e-02 -8.81294440e-03  3.54190342e-06 -1.12021323e-02
 -2.03723162e-02 -4.68440820e-03 -1.23983985e-02 -1.28386943e-02
  5.93831344e-03 -5.90672437e-03 -1.69016439e-02 -1.54105499e-02
 -3.37709077e-02  3.88513610e-04 -1.85997819e-03 -1.97449457e-02
  6.46209903e-03 -3.19425799e-02 -1.09376118e-03 -7.25488004e-04
 -1.91794913e-02 -9.81175806e-03  1.16092386e-04 -3.21371970e-03
 -2.86435767e-04 -5.61045250e-04 -3.75959324e-03  5.61530050e-03
 -2.35367417e-02  2.13758973e-03  4.09576390e-03 -9.54271760e-03
 -4.23959829e-03 -1.31954700e-02  6.15322264e-03 -1.18271597e-02
 -1.25040058e-02  4.42105928e-04  2.08360679e-03 -2.86167185e-03
 -5.70109766e-03 -2.35422514e-03  2.99646345e-04 -2.14853827e-02
 -2.66748555e-02 -1.38514237e-02 -2.96343840e-03 -2.55601183e-02
 -1.71460118e-02 -3.53037380e-03  2.01279018e-03 -5.31783677e-04
  2.06954107e-02 -5.49199432e-03 -3.16138901e-02 -5.06469328e-03
  9.91285682e-01  9.91417110e-01  9.82848704e-01  9.98218536e-01
  1.00430095e+00  1.00489140e+00  9.61670995e-01  9.85724628e-01
  9.97575581e-01  1.00045311e+00  9.79673088e-01  9.98226464e-01
  9.93526816e-01  9.94220555e-01  9.83091056e-01  9.89650428e-01
  9.89125311e-01  9.60045874e-01  9.61519420e-01  9.93884623e-01
  9.94381011e-01  9.62833464e-01  1.00175738e+00  9.87958848e-01
  9.39702809e-01  9.58082557e-01  9.83178735e-01  9.92684960e-01
  9.95723605e-01  9.84020174e-01  9.88479316e-01  9.74684179e-01
  9.96461391e-01  9.99983966e-01  9.95647728e-01  9.89885449e-01
  9.86968696e-01  9.86961007e-01  9.65705752e-01  9.68552768e-01
  9.79998231e-01  9.94538307e-01  9.99912441e-01  9.59723592e-01
  9.61706579e-01  9.90683138e-01  9.99692023e-01  9.88456845e-01
  9.77935076e-01  9.85510886e-01  9.89086330e-01  9.85144675e-01
  9.80684340e-01  9.86581385e-01  9.79922175e-01  9.80602980e-01
  9.45054054e-01  1.00051248e+00  9.97600198e-01  9.77627397e-01
  1.00014257e+00  9.69881177e-01  9.96751428e-01  9.74225640e-01
  9.86874640e-01  9.86027718e-01  9.95307207e-01  9.93914545e-01
  9.99948204e-01  9.97405827e-01  9.94935095e-01  1.00094414e+00
  9.78715837e-01  1.00091529e+00  9.91847396e-01  9.90270674e-01
  9.95258152e-01  9.86586750e-01  1.00100100e+00  9.82395172e-01
  9.78074193e-01  1.00009000e+00  1.00049973e+00  9.96620893e-01
  9.72662151e-01  9.95797038e-01  9.95210767e-01  9.72631097e-01
  9.67265010e-01  9.84232783e-01  9.97369528e-01  9.69041586e-01
  9.84219849e-01  9.97050524e-01  9.95072663e-01  9.97669697e-01
  1.01117408e+00  9.97167408e-01  9.61118579e-01  9.95359004e-01
 -7.80918123e-03  2.89681042e-03  3.98583431e-03 -5.89463254e-03
 -1.21443132e-02  9.74612031e-03 -9.73761827e-03 -1.30555127e-02
 -9.70054977e-03 -2.89250817e-03 -1.01595446e-02  8.04561470e-03
  6.82493439e-03 -5.76367741e-03 -4.52355715e-03 -4.47923550e-03
  1.16576990e-02 -5.32662263e-03 -9.06105526e-03 -4.63841343e-03
  7.08456244e-03 -1.11158770e-02 -1.44370217e-02  7.34287268e-03
  1.22457799e-02  1.57885421e-02  7.46811833e-03 -1.22844120e-02
  8.21316708e-03  6.00299006e-03 -1.23355808e-02  4.57086600e-03
  5.35136973e-03  8.16794578e-03  4.90229577e-03  8.37788917e-03
 -5.87767037e-03  1.10729793e-02  4.76765353e-03  9.12276749e-03
  1.05377268e-02  6.11768709e-03 -9.41866823e-03 -5.70402574e-03
 -6.90561719e-03 -7.70186586e-03  5.60810044e-03 -7.85967056e-03
  4.78315912e-03 -1.40849724e-02  2.01550825e-03  5.52074891e-03
 -1.30999396e-02  7.89808296e-03  5.89976367e-03  1.12995389e-03
 -6.51733298e-03  6.37461897e-03 -1.64375210e-03  6.96474500e-03
  8.83097854e-03 -6.02770923e-03 -8.13215878e-03 -8.46235920e-03
 -8.07468127e-03  7.89690670e-03 -1.02506280e-02 -9.80752334e-03
 -7.92004168e-03 -7.34853093e-03  1.14296880e-02 -1.01631610e-02
 -1.01719471e-02  1.18118543e-02  1.04164891e-02  8.16600956e-03
 -3.95043707e-03  1.12687126e-02 -1.60930790e-02  8.41621961e-03
  3.41157615e-03 -1.00405850e-02  1.18484106e-02  1.09166624e-02
 -1.13177113e-02 -1.06615350e-02 -6.85048616e-03 -1.08932592e-02
 -6.26427354e-03  6.14402164e-03 -4.09191614e-03  6.10653963e-03
  5.36472537e-03 -6.89108856e-03 -9.17023886e-03 -7.55880121e-03
  1.28204999e-02  4.79835598e-03 -4.11731540e-04  8.22110847e-03
  1.36630912e-03 -3.67339654e-03 -2.17799805e-02  1.91420224e-03
  9.88458097e-03  4.40864032e-03 -1.49972104e-02  2.39328593e-02
 -2.78381235e-03 -4.29162057e-04 -3.17031494e-03 -2.62316153e-03
 -3.86480056e-03 -3.94653529e-03 -1.87612306e-02 -1.17344745e-02
 -6.48423657e-03 -3.90873477e-02 -2.67503299e-02 -6.87396294e-03
 -9.94369015e-03 -1.97521020e-02  1.23153813e-03 -1.32205300e-02
 -4.45219576e-02 -8.07386357e-03 -1.57015156e-02 -2.67956033e-03
 -2.04050099e-03 -1.51578886e-02 -2.37312081e-04 -1.31545085e-02
 -4.14819084e-03  1.39586697e-03 -5.17288875e-03 -1.03932256e-02
 -1.04753328e-02 -8.00246932e-03 -2.41674278e-02 -1.77512895e-02
 -1.05724446e-02 -5.38739515e-03  5.01986418e-04 -2.44890694e-02
 -2.75995843e-02 -9.29257832e-03 -1.17100158e-03 -1.17149930e-02
 -2.17620749e-02 -6.30333042e-03 -1.23380516e-02 -1.30283237e-02
  6.13301015e-03 -6.03471557e-03 -1.72873307e-02 -1.64227895e-02
 -3.41957584e-02 -6.02710119e-04 -1.66278263e-03 -2.08979230e-02
  4.92742425e-03 -3.14952061e-02 -1.77172874e-03 -1.47348619e-03
 -1.89583711e-02 -1.01196868e-02 -3.43721337e-03 -3.93432332e-03
 -8.13095714e-04 -9.55398893e-04 -4.28458070e-03  5.63863758e-03
 -2.41722818e-02  1.31839118e-03  1.30090013e-03 -1.00530628e-02
 -4.76447307e-03 -1.37947137e-02  5.81996469e-03 -1.20182429e-02
 -1.43902078e-02 -2.34154286e-04  1.16260198e-03 -3.53839411e-03
 -6.37636334e-03 -2.69417162e-03 -5.30161778e-05 -2.22347751e-02
 -2.51086149e-02 -1.36870760e-02 -3.10497079e-03 -2.54750457e-02
 -1.69190131e-02 -3.96251306e-03  1.51004130e-03 -1.79140596e-03
  2.01986171e-02 -6.28445530e-03 -3.32720727e-02 -5.31859417e-03]
dense_23/kernel:0
(100, 1)
[[-0.20592065]
 [ 0.13221599]
 [-0.16338907]
 [-0.07135619]
 [-0.15066473]
 [ 0.06731382]
 [-0.15588592]
 [-0.25108552]
 [-0.11473496]
 [-0.11473402]
 [-0.16648047]
 [ 0.09486556]
 [ 0.11358296]
 [-0.11429329]
 [-0.06206944]
 [-0.13290821]
 [ 0.16315359]
 [-0.21133511]
 [-0.18046519]
 [-0.21828699]
 [ 0.17168108]
 [-0.16886687]
 [-0.18048759]
 [ 0.18435188]
 [ 0.10023287]
 [ 0.19671978]
 [ 0.19714348]
 [-0.17518827]
 [ 0.19701777]
 [ 0.18846321]
 [-0.2016644 ]
 [ 0.14952259]
 [ 0.08405336]
 [ 0.18960941]
 [ 0.20599145]
 [ 0.13368219]
 [-0.17172465]
 [ 0.07452692]
 [ 0.17399183]
 [ 0.2414103 ]
 [ 0.1322977 ]
 [ 0.20589858]
 [-0.20369716]
 [-0.10209101]
 [-0.18212683]
 [-0.22530654]
 [ 0.09987803]
 [-0.06484792]
 [ 0.11532108]
 [-0.18188539]
 [ 0.17312242]
 [ 0.10545374]
 [-0.21755388]
 [ 0.14464533]
 [ 0.18764566]
 [-0.09511682]
 [-0.19655657]
 [ 0.05797797]
 [ 0.00644895]
 [ 0.18849595]
 [ 0.07300583]
 [-0.04050622]
 [-0.08851711]
 [-0.1717311 ]
 [-0.15819053]
 [ 0.18084973]
 [-0.12254087]
 [-0.19956206]
 [-0.04753425]
 [-0.16430616]
 [ 0.13193442]
 [-0.21775807]
 [-0.20656975]
 [ 0.15117681]
 [ 0.08868228]
 [ 0.20848998]
 [-0.13007161]
 [ 0.2414366 ]
 [-0.09263651]
 [ 0.18853702]
 [ 0.10682566]
 [-0.10142668]
 [ 0.13165876]
 [ 0.10582054]
 [-0.16259947]
 [-0.21445389]
 [-0.22342479]
 [-0.10109181]
 [-0.12969434]
 [ 0.19246534]
 [-0.05364246]
 [ 0.22006392]
 [ 0.19793801]
 [-0.21523078]
 [-0.24459977]
 [-0.08356021]
 [ 0.08740792]
 [-0.08087336]
 [-0.10969621]
 [ 0.1835138 ]]
dense_23/bias:0
(1,)
[0.07908485]
